{
  "config": {
    "attention_bias": false,
    "dtype": "float32",
    "eos_token_id": 0,
    "head_dim": 4,
    "hidden_act": "silu",
    "hidden_size": 8,
    "intermediate_size": 12,
    "mask_token_id": null,
    "max_position_embeddings": 16,
    "num_attention_heads": 2,
    "num_hidden_layers": 1,
    "num_key_value_heads": 1,
    "pad_token_id": 0,
    "qk_norm": true,
    "rms_norm_eps": 1e-06,
    "rope_scaling": null,
    "rope_theta": 1000000.0,
    "tie_word_embeddings": false,
    "vocab_size": 16
  },
  "expected_logits": {
    "data": [
      0.044326454401016235,
      -0.01667550951242447,
      0.19852592051029205,
      -0.1698279231786728,
      -0.08935098350048065,
      0.032738395035266876,
      0.3159072697162628,
      0.0921500027179718,
      0.26212260127067566,
      -0.12863484025001526,
      0.15582872927188873,
      0.10872852802276611,
      0.05087902396917343,
      -0.032475218176841736,
      -0.06467124819755554,
      -0.06345007568597794,
      0.008998081088066101,
      0.0511549636721611,
      -0.13328060507774353,
      0.011727005243301392,
      -0.0003299638628959656,
      -0.34969377517700195,
      -0.03692372888326645,
      0.0972476527094841,
      0.003970392048358917,
      -0.15116259455680847,
      -0.23490917682647705,
      -0.06239387392997742,
      -0.15769335627555847,
      -0.19740524888038635,
      0.010410316288471222,
      -0.17743034660816193,
      0.052123405039310455,
      0.12734398245811462,
      -0.05574037879705429,
      0.14890463650226593,
      -0.16673661768436432,
      -0.2549861669540405,
      0.08822016417980194,
      -0.050013501197099686,
      -0.05468212068080902,
      0.12171640992164612,
      -0.4201830327510834,
      0.18333256244659424,
      -0.009683281183242798,
      -0.06033414602279663,
      0.1408880650997162,
      -0.09474892169237137
    ],
    "shape": [
      1,
      3,
      16
    ]
  },
  "input_ids": [
    [
      1,
      2,
      3
    ]
  ],
  "positions": [
    [
      0,
      2,
      5
    ]
  ],
  "weights": {
    "lm_head.weight": {
      "data": [
        0.002902548760175705,
        -0.026414483785629272,
        -0.008696021512150764,
        -0.032504525035619736,
        0.09409873932600021,
        -0.07331211119890213,
        -0.08063920587301254,
        -0.031321655958890915,
        0.01820538006722927,
        0.031835295259952545,
        -0.02054865099489689,
        0.09985560178756714,
        -0.02962139993906021,
        0.044281333684921265,
        0.02751653827726841,
        0.06261077523231506,
        0.0952451303601265,
        0.07795873284339905,
        0.0529123954474926,
        0.03964969515800476,
        -0.0329003669321537,
        -0.07046288251876831,
        -0.08747279644012451,
        -0.05161966010928154,
        -0.013543703593313694,
        0.00439925491809845,
        0.05461671203374863,
        0.0917481854557991,
        -0.0765359029173851,
        -0.07859916985034943,
        0.017938945442438126,
        0.049079615622758865,
        0.06963007897138596,
        0.08716641366481781,
        0.0966852456331253,
        -0.02003966085612774,
        -0.023932963609695435,
        -0.07043826580047607,
        0.03698688745498657,
        0.031352393329143524,
        0.07241252064704895,
        -0.08054839819669724,
        -0.00044461843208409846,
        0.01621638610959053,
        -0.05168859288096428,
        -0.06619492173194885,
        0.07191617041826248,
        -0.08829301595687866,
        -0.0058758193626999855,
        -0.07683320343494415,
        -0.008588247932493687,
        0.09599246829748154,
        -0.015258729457855225,
        0.07142498344182968,
        -0.0765368863940239,
        -0.04574958607554436,
        -0.01924145221710205,
        -0.02003757283091545,
        0.03427669405937195,
        -0.031056374311447144,
        0.042753372341394424,
        0.02783738076686859,
        -0.020167771726846695,
        -0.013647974468767643,
        0.022905539721250534,
        -0.08599156141281128,
        0.06448134779930115,
        0.030684232711791992,
        0.04526849463582039,
        0.00738460011780262,
        -0.07790457457304001,
        -0.018992876634001732,
        -0.01892528310418129,
        -0.03579140082001686,
        -0.09400993585586548,
        0.047450847923755646,
        -0.07804311066865921,
        0.021261626854538918,
        0.04064349830150604,
        0.02695726417005062,
        0.09182845056056976,
        -0.0793403685092926,
        0.07343342900276184,
        -0.09416195005178452,
        0.006983370985835791,
        -0.019151275977492332,
        0.0048367721028625965,
        -0.026980023831129074,
        -0.06188661605119705,
        -0.096175417304039,
        0.003629962680861354,
        0.06855536997318268,
        -0.025356808677315712,
        -0.05542723461985588,
        -0.08389359712600708,
        -0.0829378142952919,
        -0.05572070926427841,
        -0.07999718934297562,
        -0.04699205979704857,
        -0.08677010983228683,
        -0.08687902987003326,
        0.07125523686408997,
        -0.06757594645023346,
        0.011936481110751629,
        0.05469110980629921,
        -0.008718087337911129,
        -0.06932622194290161,
        -0.060080770403146744,
        -0.013403158634901047,
        0.005646817851811647,
        -0.030111942440271378,
        0.05629592016339302,
        0.0502043291926384,
        0.08544236421585083,
        -0.09420949220657349,
        0.07913825660943985,
        -0.02148624323308468,
        0.07567449659109116,
        0.03815695643424988,
        0.0974697545170784,
        0.05185649171471596,
        -0.027091074734926224,
        0.0002126345643773675,
        -0.02472216822206974,
        -0.027017632499337196,
        -0.0478191003203392,
        -0.0008059409447014332,
        0.03634798899292946
      ],
      "shape": [
        16,
        8
      ]
    },
    "model.embed_tokens.weight": {
      "data": [
        0.009762700647115707,
        0.04303787276148796,
        0.020552674308419228,
        0.008976636454463005,
        -0.015269040130078793,
        0.02917882241308689,
        -0.012482557445764542,
        0.0783545970916748,
        0.09273254871368408,
        -0.02331169694662094,
        0.0583450086414814,
        0.0057789841666817665,
        0.013608912006020546,
        0.08511932939291,
        -0.08579278737306595,
        -0.08257413655519485,
        -0.09595631808042526,
        0.0665239691734314,
        0.055631350725889206,
        0.07400242984294891,
        0.09572366625070572,
        0.059831712394952774,
        -0.0077041275799274445,
        0.0561058335006237,
        -0.07634511590003967,
        0.02798420377075672,
        -0.07132934033870697,
        0.0889337807893753,
        0.004369664471596479,
        -0.01706761121749878,
        -0.047088876366615295,
        0.054846737533807755,
        -0.008769933134317398,
        0.013686790131032467,
        -0.0962420403957367,
        0.023527098819613457,
        0.022419145330786705,
        0.023386798799037933,
        0.08874961733818054,
        0.03636405989527702,
        -0.028098419308662415,
        -0.012593609280884266,
        0.03952623903751373,
        -0.08795490860939026,
        0.03335334360599518,
        0.034127574414014816,
        -0.057923488318920135,
        -0.07421474158763885,
        -0.03691432997584343,
        -0.027257846668362617,
        0.014039354398846626,
        -0.012279697693884373,
        0.09767476469278336,
        -0.07959103584289551,
        -0.058224648237228394,
        -0.06773809343576431,
        0.030621664598584175,
        -0.049341678619384766,
        -0.006737845484167337,
        -0.05111488327383995,
        -0.06820608675479889,
        -0.07792497426271439,
        0.03126591816544533,
        -0.07236340641975403,
        -0.06068352609872818,
        -0.026254964992403984,
        0.06419864296913147,
        -0.0805797427892685,
        0.06758898496627808,
        -0.08078031986951828,
        0.09529189020395279,
        -0.006269759498536587,
        0.09535221755504608,
        0.020969104021787643,
        0.04785271733999252,
        -0.09216244518756866,
        -0.04343860596418381,
        -0.0759606882929802,
        -0.0407719612121582,
        -0.0762544572353363,
        -0.036403365433216095,
        -0.017147401347756386,
        -0.08717050403356552,
        0.038494423031806946,
        0.013320290483534336,
        -0.04692210257053375,
        0.004649610724300146,
        -0.08121189475059509,
        0.01518929935991764,
        0.08585923910140991,
        -0.036286208778619766,
        0.03348207473754883,
        -0.07364042848348618,
        0.043265439569950104,
        -0.04211878031492233,
        -0.06336172670125961,
        0.017302587628364563,
        -0.09597849100828171,
        0.06578800827264786,
        -0.09906090795993805,
        0.035563308745622635,
        -0.045998405665159225,
        0.04703880473971367,
        0.09243770688772202,
        -0.0502493716776371,
        0.015231466852128506,
        0.018408386036753654,
        0.014450381509959698,
        -0.055383674800395966,
        0.09054980427026749,
        -0.01057492382824421,
        0.06928173452615738,
        0.03989585489034653,
        -0.04051261022686958,
        0.06275956332683563,
        -0.020698850974440575,
        0.07622063905000687,
        0.016254574060440063,
        0.07634707540273666,
        0.038506317883729935,
        0.04505085572600365,
        0.00026487637660466135,
        0.09121672809123993,
        0.028798040002584457,
        -0.015228990465402603,
        0.021278642117977142,
        -0.0961613580584526,
        -0.03968503698706627
      ],
      "shape": [
        16,
        8
      ]
    },
    "model.layers.0.input_layernorm.weight": {
      "data": [
        1.0,
        1.0,
        1.0,
        1.0,
        1.0,
        1.0,
        1.0,
        1.0
      ],
      "shape": [
        8
      ]
    },
    "model.layers.0.mlp.down_proj.weight": {
      "data": [
        0.04801950603723526,
        0.03610289469361305,
        0.02447688579559326,
        0.04210568219423294,
        -0.05901526287198067,
        -0.031660377979278564,
        0.035248495638370514,
        0.07584695518016815,
        0.008735611103475094,
        -0.043460071086883545,
        -0.09395294636487961,
        0.04206736758351326,
        -0.09842318296432495,
        -0.025464186444878578,
        0.0061074430122971535,
        0.0844222903251648,
        -0.08210109174251556,
        -0.018811535090208054,
        -0.09513735771179199,
        -0.031477801501750946,
        0.024446211755275726,
        -0.04418640956282616,
        -0.0580500103533268,
        -0.07685935497283936,
        0.015428048558533192,
        0.03905400261282921,
        0.03439142927527428,
        0.08977220207452774,
        -0.09945935755968094,
        0.029439330101013184,
        0.020078446716070175,
        0.017747921869158745,
        0.09255406260490417,
        -0.0966256633400917,
        0.03929648548364639,
        0.06273572891950607,
        0.0019614393822848797,
        -0.03320702537894249,
        0.05816803127527237,
        -0.08055141568183899,
        -0.011592872440814972,
        0.003990475088357925,
        0.03879128396511078,
        -0.08182285726070404,
        -0.054448097944259644,
        -0.01793968677520752,
        0.024658935144543648,
        0.07739215344190598,
        0.023765234276652336,
        -0.07330770790576935,
        0.09611602872610092,
        0.07435714453458786,
        0.0005441522225737572,
        0.08446959406137466,
        0.008276158943772316,
        0.08466121554374695,
        0.0659794732928276,
        0.09365728497505188,
        0.08395656198263168,
        -0.09279323369264603,
        -0.06504560261964798,
        -0.022173063829541206,
        0.09042853862047195,
        -0.039994217455387115,
        -0.0679064691066742,
        0.07726093381643295,
        -0.0107211172580719,
        0.08157511800527573,
        -0.06795390695333481,
        0.03222350403666496,
        -0.011947249062359333,
        -0.08470264822244644,
        0.039292629808187485,
        -0.05052024871110916,
        -0.09207689762115479,
        -0.08801113814115524,
        -0.0877842903137207,
        0.0815465897321701,
        0.0479767844080925,
        0.07961247116327286,
        0.034516461193561554,
        0.005787985865026712,
        -0.03911072760820389,
        0.09959244728088379,
        -0.027562187984585762,
        -0.0058702100068330765,
        -0.0243509653955698,
        0.09590538591146469,
        -0.065068319439888,
        -0.03440240025520325,
        0.036069732159376144,
        -0.08735847473144531,
        0.021449875086545944,
        -0.004470699466764927,
        -0.04320000484585762,
        -0.05231734365224838
      ],
      "shape": [
        8,
        12
      ]
    },
    "model.layers.0.mlp.gate_proj.weight": {
      "data": [
        -0.045934420078992844,
        -0.07370343804359436,
        -0.08892513811588287,
        -0.039680272340774536,
        -0.04757637158036232,
        -0.008771887049078941,
        0.03665626794099808,
        0.03912508860230446,
        -0.04329622909426689,
        -0.024014608934521675,
        -0.06376980990171432,
        0.05770910158753395,
        -0.08863038569688797,
        0.03939944878220558,
        0.05573907867074013,
        0.05548151209950447,
        -0.04811548814177513,
        -0.025237372145056725,
        0.01751992665231228,
        -0.04543561860918999,
        -0.025829439982771873,
        -0.06058914214372635,
        -0.00802882295101881,
        -0.0910775363445282,
        0.05995917692780495,
        -0.08460871130228043,
        0.0037670298479497433,
        -0.038637980818748474,
        0.015508589334785938,
        0.09188666939735413,
        0.029114048928022385,
        -0.09292751550674438,
        -0.013919511809945107,
        0.002003370551392436,
        0.00723549909889698,
        0.03627850115299225,
        -0.04448078200221062,
        -0.07422788441181183,
        -0.021464863792061806,
        0.09128114581108093,
        -0.06257382035255432,
        0.08079679310321808,
        0.008761189877986908,
        -0.008617715910077095,
        0.0764082819223404,
        -0.008279208093881607,
        0.04483352601528168,
        -0.02019493654370308,
        0.08080887794494629,
        0.038005005568265915,
        0.03992440924048424,
        -0.03445592150092125,
        0.05135572701692581,
        0.02721221186220646,
        -0.05199594423174858,
        -0.06789223849773407,
        0.05927829444408417,
        0.09183332324028015,
        -0.008372234180569649,
        0.01819683238863945,
        0.07154452800750732,
        -0.008555308915674686,
        0.0903748944401741,
        0.01515023224055767,
        0.06415342539548874,
        0.08176874369382858,
        0.06310476362705231,
        -0.06811710447072983,
        0.025779688730835915,
        -0.020313147455453873,
        -0.08745741099119186,
        -0.015193549916148186,
        -0.04826318845152855,
        0.06980766355991364,
        -0.09333907812833786,
        0.09179654717445374,
        -0.02892623096704483,
        -0.02865862101316452,
        -0.09673430025577545,
        -0.06295353174209595,
        -0.019748099148273468,
        0.0858582854270935,
        -0.08007701486349106,
        0.08906030654907227,
        0.07389770448207855,
        -0.009167520329356194,
        -0.03465982526540756,
        -0.05345117300748825,
        0.022892940789461136,
        -0.09338507801294327,
        -0.0968787893652916,
        -0.014240855351090431,
        -0.08638518303632736,
        -0.04961180314421654,
        -0.05576781556010246,
        -0.049361761659383774
      ],
      "shape": [
        12,
        8
      ]
    },
    "model.layers.0.mlp.up_proj.weight": {
      "data": [
        -0.07378895580768585,
        -0.09759275615215302,
        -0.07690314203500748,
        0.0236960519105196,
        0.09485124051570892,
        0.09806899726390839,
        -0.01818918064236641,
        -0.06740911304950714,
        0.027752351015806198,
        -0.0019389307126402855,
        0.09788195788860321,
        -0.08693915605545044,
        0.056646887212991714,
        -0.04232029989361763,
        -0.05171627551317215,
        0.032500915229320526,
        -0.050787363201379776,
        0.03317182511091232,
        0.0034617034252732992,
        -0.01518220268189907,
        0.01093756128102541,
        -0.0425896942615509,
        0.04131494089961052,
        -0.017028626054525375,
        -0.0278908871114254,
        0.06573138386011124,
        0.0849933847784996,
        -0.09079853445291519,
        -0.05347460135817528,
        -0.030296126380562782,
        0.06299329549074173,
        0.09709828346967697,
        0.0937943384051323,
        0.08098966628313065,
        -0.04068874567747116,
        0.0984022468328476,
        -0.05011599138379097,
        -0.07881876826286316,
        0.09019052237272263,
        -0.05331594869494438,
        0.03795365244150162,
        -0.08832872658967972,
        0.046141818165779114,
        0.07634404301643372,
        -0.045512620359659195,
        -0.02418862096965313,
        -0.02514076419174671,
        0.04975765198469162,
        -0.05243854969739914,
        -0.06562937796115875,
        -0.01014167070388794,
        -0.03910631686449051,
        0.06783782690763474,
        -0.052451636642217636,
        0.0004778915026690811,
        0.0885167196393013,
        0.026799539104104042,
        0.07345788180828094,
        0.08804193884134293,
        0.0501529723405838,
        0.03991501033306122,
        0.09359311312437057,
        0.09888015687465668,
        -0.009635663591325283,
        -0.08582604676485062,
        -0.04144119471311569,
        -0.06952905654907227,
        -0.016502724960446358,
        -0.07374213635921478,
        0.020823560655117035,
        -0.023438388481736183,
        0.07907717674970627,
        0.09355893731117249,
        0.009376980364322662,
        -0.045035287737846375,
        0.01844608411192894,
        0.0793522298336029,
        -0.018653331324458122,
        0.010415655560791492,
        -0.045669447630643845,
        -0.008911170065402985,
        -0.01965729333460331,
        -0.05031730607151985,
        0.0011732768034562469,
        -0.03792383521795273,
        -0.025393027812242508,
        0.004994088318198919,
        0.050119005143642426,
        -0.03329850733280182,
        0.08483175188302994,
        0.07246370613574982,
        -0.09026194363832474,
        -0.04927149415016174,
        -0.010772897861897945,
        -0.0790744200348854,
        -0.0303048025816679
      ],
      "shape": [
        12,
        8
      ]
    },
    "model.layers.0.post_attention_layernorm.weight": {
      "data": [
        1.0,
        1.0,
        1.0,
        1.0,
        1.0,
        1.0,
        1.0,
        1.0
      ],
      "shape": [
        8
      ]
    },
    "model.layers.0.self_attn.k_norm.weight": {
      "data": [
        1.0,
        1.0,
        1.0,
        1.0
      ],
      "shape": [
        4
      ]
    },
    "model.layers.0.self_attn.k_proj.weight": {
      "data": [
        -0.06276139616966248,
        0.08887448161840439,
        0.04791015759110451,
        -0.0019082382787019014,
        -0.054517075419425964,
        -0.0491287037730217,
        -0.0883941650390625,
        -0.01311667449772358,
        -0.03764082491397858,
        0.039268698543310165,
        -0.024449631571769714,
        -0.06407926231622696,
        -0.09506425261497498,
        -0.08655007183551788,
        0.03587855398654938,
        -0.009260631166398525,
        0.007315842434763908,
        0.07933425903320312,
        0.09806779026985168,
        -0.05662060156464577,
        0.03261563926935196,
        -0.04733552411198616,
        -0.09586980193853378,
        0.05167572945356369,
        -0.03599657118320465,
        -0.02330722101032734,
        0.017663422971963882,
        0.06620968878269196,
        0.025796368718147278,
        0.07453013211488724,
        -0.04529159143567085,
        0.059609368443489075
      ],
      "shape": [
        4,
        8
      ]
    },
    "model.layers.0.self_attn.o_proj.weight": {
      "data": [
        0.010438494384288788,
        0.016895214095711708,
        0.09238727390766144,
        -0.04157049581408501,
        -0.05183424428105354,
        -0.07994121313095093,
        -0.0967140719294548,
        0.08590586483478546,
        0.03398330882191658,
        0.057030580937862396,
        -0.043653979897499084,
        0.0172820333391428,
        -0.08720894902944565,
        -0.0028744807932525873,
        0.09549903124570847,
        0.07530105113983154,
        -0.03236820921301842,
        0.09231402724981308,
        -0.053659673780202866,
        0.08986376225948334,
        0.08827554434537888,
        0.05984051898121834,
        0.026089588180184364,
        0.07485759258270264,
        -0.041395943611860275,
        0.06978870928287506,
        0.02357533760368824,
        -0.09735263139009476,
        -0.030553296208381653,
        -0.0703718289732933,
        0.09636587649583817,
        -0.004325938411056995,
        -0.0005217269062995911,
        0.027894502505660057,
        -0.026283077895641327,
        -0.07261994481086731,
        0.06442354619503021,
        -0.06203041598200798,
        0.002263796515762806,
        -0.05513659492135048,
        -0.08043110370635986,
        0.0724383071064949,
        0.0945838987827301,
        0.09216693043708801,
        0.08131109923124313,
        0.05480946600437164,
        -0.0333709679543972,
        -0.0837797224521637,
        -0.018551765009760857,
        -0.05355317145586014,
        -0.07350247353315353,
        -0.08931456506252289,
        0.045118872076272964,
        -0.09771450608968735,
        0.0541161485016346,
        -0.07061067223548889,
        -0.08409558236598969,
        -0.08207939565181732,
        0.03440956026315689,
        -0.050926558673381805,
        -0.015892107039690018,
        0.011473758146166801,
        0.07211023569107056,
        0.04540885239839554
      ],
      "shape": [
        8,
        8
      ]
    },
    "model.layers.0.self_attn.q_norm.weight": {
      "data": [
        1.0,
        1.0,
        1.0,
        1.0
      ],
      "shape": [
        4
      ]
    },
    "model.layers.0.self_attn.q_proj.weight": {
      "data": [
        0.03203470632433891,
        -0.04198447987437248,
        0.023603085428476334,
        -0.014246259815990925,
        -0.07290519028902054,
        -0.04034353420138359,
        0.013992981985211372,
        0.01817455142736435,
        0.014865050092339516,
        0.030640164390206337,
        0.030420653522014618,
        -0.013716313056647778,
        0.07930932193994522,
        -0.026487626135349274,
        -0.012827014550566673,
        0.07838466763496399,
        0.06123879924416542,
        0.04077771678566933,
        -0.07995462417602539,
        0.08389652520418167,
        0.04284825921058655,
        0.09976939857006073,
        -0.07011033594608307,
        0.07362521439790726,
        -0.06750141084194183,
        0.023111913353204727,
        -0.0752360001206398,
        0.0696016475558281,
        0.061463791877031326,
        0.013820148073136806,
        -0.018563341349363327,
        -0.08616659790277481,
        0.03948575630784035,
        -0.009291463531553745,
        0.04441111907362938,
        0.07327646762132645,
        0.09510429948568344,
        0.07116066664457321,
        -0.09765718132257462,
        -0.028004387393593788,
        0.04599811136722565,
        -0.0656740665435791,
        0.00420732144266367,
        -0.0891324058175087,
        -0.060000695288181305,
        -0.09629563987255096,
        0.05873953923583031,
        -0.05521506071090698,
        -0.03092966414988041,
        0.08561626076698303,
        0.04088288173079491,
        -0.09363221377134323,
        -0.0670611709356308,
        0.024295680224895477,
        0.015445717610418797,
        -0.052421435713768005,
        0.08684279769659042,
        0.02279319055378437,
        0.0071265604346990585,
        0.01798199489712715,
        0.04602440446615219,
        -0.03761100023984909,
        -0.020355787128210068,
        -0.05803124979138374
      ],
      "shape": [
        8,
        8
      ]
    },
    "model.layers.0.self_attn.v_proj.weight": {
      "data": [
        -0.06287281215190887,
        0.09055832773447037,
        0.03749765455722809,
        -0.056898463517427444,
        0.08947411924600601,
        0.0461711622774601,
        -0.04921166971325874,
        -0.05733760446310043,
        0.003640142735093832,
        -0.09486745297908783,
        -0.058505985885858536,
        -0.015062905848026276,
        -0.02516600303351879,
        -0.007284915074706078,
        -0.04447425901889801,
        0.01735686883330345,
        0.07277112454175949,
        -0.07649362832307816,
        0.0034758213441818953,
        -0.07358638197183609,
        0.043371934443712234,
        -0.020788058638572693,
        0.013084262609481812,
        -0.06334403157234192,
        -0.07103044539690018,
        -0.002388743916526437,
        -0.02887745201587677,
        0.08808638900518417,
        0.05306505039334297,
        0.04973272234201431,
        0.0807439461350441,
        -0.08331551402807236
      ],
      "shape": [
        4,
        8
      ]
    },
    "model.norm.weight": {
      "data": [
        1.0,
        1.0,
        1.0,
        1.0,
        1.0,
        1.0,
        1.0,
        1.0
      ],
      "shape": [
        8
      ]
    }
  }
}
